tree
version=v2
num_class=1
num_tree_per_iteration=1
label_index=1
max_feature_idx=23
objective=binary sigmoid:1
feature_names=id hour C1 banner_pos site_id site_domain site_category app_id app_domain app_category device_id device_ip device_model device_type device_conn_type C14 C15 C16 C17 C18 C19 C20 C21 weekday
feature_infos=none 1:0 2:0 1:0 7:0 5:0 3:0 95:0 1:0 1:0 176:0 24:29 22:77 3:0 none 15:0 1:0 1:0 3:0 1:0 2:0 7:0 1:0 none
tree_sizes=1370 1335 1335 1479 1267 1465 1147 1194 1329 1328

Tree=0
num_leaves=19
num_cat=18
split_feature=17 22 4 20 3 20 19 4 18 3 19 15 19 9 18 21 9 19
split_gain=75.3126 49.4833 30.0831 22.7616 7.34451 6.18968 5.70635 4.98031 4.91044 2.41253 4.11712 2.62324 2.44842 0.695683 0.244195 0.182614 0.135328 0.129852
threshold=0 1 2 3 4 5 6 7 8 9 10 11 12 13 14 15 16 17
decision_type=1 1 1 1 1 1 1 1 1 1 1 5 1 1 1 1 1 1
left_child=-1 4 3 -3 8 17 16 13 -2 10 -7 -11 -13 -6 -9 -14 -5 -4
right_child=1 2 5 6 7 9 -8 14 -10 11 -12 12 15 -15 -16 -17 -18 -19
leaf_value=-1.4776771380953324 -1.5910774077420733 -1.5411836741644169 -1.5820776479580676 -1.6100329717380424 -1.5721744747217854 -1.5724328018350253 -1.574888150761657 -1.6054099457412847 -1.5485773924707411 -1.5395348764286743 -1.5358058351228663 -1.5384983341768665 -1.5641360131774082 -1.589776103243014 -1.613117718168845 -1.5578034538612628 -1.5990461746636524 -1.5737295946296679
leaf_count=158 116 145 93 320 70 64 120 332 79 178 285 121 104 112 244 1311 63 85
internal_value=0 -0.0674763 0.104825 -0.396639 -0.590231 0.250217 -0.663364 -0.708179 -0.127273 0.291217 0.49384 0.249366 0.213194 -0.31862 -0.829519 0.181382 -0.821335 -0.220329
internal_count=4000 3842 2889 648 953 2241 503 758 195 2063 349 1714 1536 182 576 1415 383 178
cat_boundaries=0 1 2 3 4 5 6 7 8 9 10 11 12 13 14 15 16 17 18
cat_threshold=2 2 128 4 2 4 2 128 1 2 2 32768 2 2 8 128 2 2
shrinkage=1


Tree=1
num_leaves=18
num_cat=17
split_feature=22 4 20 3 19 4 18 19 6 20 6 3 15 9 20 18 9
split_gain=58.4581 34.9967 23.1063 6.97979 5.44348 4.69952 4.47125 1.80197 9.35448 10.6634 4.88727 3.34706 1.69343 0.580493 0.464622 0.243014 0.132996
threshold=0 1 2 3 4 5 6 7 8 9 10 11 12 13 14 15 16
decision_type=1 1 1 1 1 1 1 1 1 1 1 1 5 1 1 1 1
left_child=3 2 -2 6 16 13 -1 10 -9 -10 14 -11 -13 -5 -3 -7 -4
right_child=1 7 4 5 -6 15 -8 8 9 11 -12 12 -14 -15 -16 -17 -18
leaf_value=-0.022947968649408318 0.025873135151232352 -0.011073335613411454 -0.041780319187247006 -0.0054778370785638656 -0.0072366383593160475 -0.037141812518092253 0.017585645595172873 -0.031900372382750598 0.048323549511912783 0.029312728528067655 0.034783379215657412 0.025909816890797289 0.012092795223643538 -0.021672595338705615 0.0012849169101605835 -0.044892202149479567 -0.030812643602243735
leaf_count=116 154 94 320 71 120 332 79 63 194 285 75 178 1388 112 112 244 63
internal_value=0 0.182386 -0.362288 -0.572982 -0.644706 -0.690034 -0.121419 0.329093 0.35557 0.386458 0.126145 0.32337 0.274243 -0.311586 -0.0832319 -0.810591 -0.802402
internal_count=4000 3046 657 954 503 759 195 2389 2108 2045 281 1851 1566 183 206 576 383
cat_boundaries=0 1 2 3 4 5 6 7 8 9 10 11 12 13 14 15 16 17
cat_threshold=2 128 4 2 2 128 1 2 8 4 1 2 32768 2 4 8 2
shrinkage=0.05


Tree=2
num_leaves=18
num_cat=17
split_feature=17 22 4 20 3 20 19 4 20 3 19 15 19 9 20 9 19
split_gain=59.492 41.5825 24.4163 19.2144 6.58725 5.40227 5.19013 4.59649 4.07204 1.8264 3.22041 2.01837 1.96963 0.600048 0.241987 0.130723 0.0462599
threshold=0 1 2 3 4 5 6 7 8 9 10 11 12 13 14 15 16
decision_type=1 1 1 1 1 1 1 1 1 1 1 5 1 1 1 1 1
left_child=-1 4 3 -3 8 16 15 13 -2 10 -7 -11 -13 -6 -9 -5 -4
right_child=1 2 5 6 7 9 -8 14 -10 11 -12 12 -14 -15 -16 -17 -18
leaf_value=0.076295228527425693 -0.022149475972873336 0.022721941136646943 -0.013765202384481005 -0.040854437761846059 -0.004382155300507706 -0.0049441018638450799 -0.006910405413450481 -0.036200252626978582 0.016521639074531341 0.024203439206895955 0.027319493388273414 0.025428890784002442 0.0079772669663256066 -0.02090031989920374 -0.043994690995731195 -0.0299073351099742 -0.00768259355409658
leaf_count=158 116 145 93 320 70 64 120 332 79 178 285 121 1415 112 244 63 85
internal_value=0 -0.0633457 0.0912011 -0.368497 -0.55461 0.218902 -0.626409 -0.670645 -0.115814 0.256535 0.430135 0.220085 0.188211 -0.293947 -0.791969 -0.783774 -0.220916
internal_count=4000 3842 2889 648 953 2241 503 758 195 2063 349 1714 1536 182 576 383 178
cat_boundaries=0 1 2 3 4 5 6 7 8 9 10 11 12 13 14 15 16 17
cat_threshold=2 2 128 4 2 4 2 128 1 2 2 32768 2 2 4 2 2
shrinkage=0.05


Tree=3
num_leaves=20
num_cat=19
split_feature=17 22 4 19 3 4 18 2 9 15 3 19 9 19 6 6 21 18 9
split_gain=51.2931 38.2542 22.1189 7.49511 6.23211 4.41003 3.70892 1.73831 1.19365 1.10213 0.889725 4.05377 0.555057 0.252234 5.55829 2.57933 0.283848 0.241006 0.208668
threshold=0 1 2 3 4 5 6 7 8 9 10 11 12 13 14 15 16 17 18
decision_type=1 1 1 1 1 1 1 1 1 5 1 1 1 1 1 1 1 1 1
left_child=-1 4 3 7 6 12 -2 -3 -9 -4 11 -11 -6 15 16 -12 -15 -7 -5
right_child=1 2 9 18 5 17 -8 8 -10 10 13 -13 -14 14 -16 -17 -18 -19 -20
leaf_value=0.069158904019435349 0.015534087301328684 -0.043785186720311634 0.019922060428952525 0.0064876170141946674 -0.0041774625197770711 -0.035272843360568622 -0.021370286582951231 -0.027321881612315531 -0.0081416709840680859 -0.008143563560563491 0.030625660462668038 0.021688104339924196 -0.020147634186157472 0.0019821137259210023 -0.031100955667461478 -0.00089083224666532406 0.0095678290260672056 -0.043111723966429379 -0.0024782181988491831
leaf_count=158 79 103 188 133 70 332 116 267 84 103 75 324 112 104 63 100 1284 244 61
internal_value=0 -0.0605621 0.0862454 -0.354963 -0.537407 -0.652393 -0.110449 -0.551177 -0.454953 0.20645 0.187905 0.295191 -0.282337 0.158694 0.14605 0.257741 0.180552 -0.773624 0.0703692
internal_count=4000 3842 2889 648 953 758 195 454 351 2241 2053 427 182 1626 1451 175 1388 576 194
cat_boundaries=0 1 2 3 4 5 6 7 8 9 10 11 12 13 14 15 16 17 18 19
cat_threshold=2 2 128 2 2 128 8 4 2 32768 2 2 2 2 1 8 128 8 2
shrinkage=0.05


Tree=4
num_leaves=17
num_cat=16
split_feature=22 17 4 20 3 19 20 4 18 3 19 19 9 18 9 19
split_gain=44.8666 35.7779 20.0382 17.4845 5.91721 4.67368 4.648 4.13231 3.37844 1.45563 2.50501 1.25863 0.447066 0.239983 0.104801 0.0244373
threshold=0 1 2 3 4 5 6 7 8 9 10 11 12 13 14 15
decision_type=1 1 1 1 1 1 1 1 1 1 1 1 1 1 1 1
left_child=4 -2 3 -3 8 14 15 12 -1 10 -8 -11 -6 -9 -5 -4
right_child=1 2 6 5 7 -7 9 13 -10 11 -12 -13 -14 -15 -16 -17
leaf_value=0.014616006714472288 0.063850900762886839 0.021761201953692865 -0.013072884606329608 -0.039214745870610863 -0.0049424390779582751 -0.0067327426555902339 -0.0043363598076270934 -0.034358800273241001 -0.020610261008956784 0.022591851637312518 0.024087581747063942 0.0087977068490985508 -0.019414377876027733 -0.042241572152834937 -0.028707623452704858 -0.0077816826928723062
leaf_count=79 157 145 93 320 71 120 64 332 116 121 285 1593 112 244 63 85
internal_value=0 0.153466 0.08159 -0.341697 -0.521543 -0.596466 0.19481 -0.635493 -0.105311 0.229151 0.382368 0.196599 -0.277573 -0.755532 -0.751868 -0.214437
internal_count=4000 3046 2889 648 954 503 2241 759 195 2063 349 1714 183 576 383 178
cat_boundaries=0 1 2 3 4 5 6 7 8 9 10 11 12 13 14 15 16
cat_threshold=2 2 128 4 2 2 4 128 8 2 2 2 2 8 2 2
shrinkage=0.05


Tree=5
num_leaves=20
num_cat=19
split_feature=22 19 3 3 4 20 6 20 18 6 6 3 4 18 3 15 8 21 9
split_gain=44.7337 29.8858 5.95221 5.82416 8.55337 12.6294 5.18201 3.92523 3.30398 2.23173 2.1993 2.90796 1.36341 1.24029 0.433315 0.899829 0.297044 0.293373 0.0753966
threshold=0 1 2 3 4 5 6 7 8 9 10 11 12 13 14 15 16 17 18
decision_type=1 1 1 1 1 1 1 1 1 1 1 1 1 1 1 5 1 1 1
left_child=2 3 8 -2 5 -5 -6 10 -1 18 -3 -12 -4 -14 -11 -16 -7 -17 -9
right_child=1 7 12 4 6 16 -8 9 -10 14 11 -13 13 -15 15 17 -18 -19 -20
leaf_value=0.01537169854689617 -0.037518876057795476 0.0094584079328406696 -0.021829428387043048 0.021716591718502518 0.037187616840601061 -0.034279256254650503 -0.0071434637143267784 8.8567422880907681e-05 -0.020204433284729807 0.018042391292242485 0.007463888140522886 0.043061332673713371 -0.029625865146773414 -0.04376148256595494 0.021334856403193665 0.0039505696328385551 -0.049503978078212454 0.011704054212626274 -0.0051642515598038273
leaf_count=73 195 84 195 79 77 229 97 76 117 289 54 147 329 256 169 104 52 1286 92
internal_value=0 0.143455 -0.531242 -0.339575 -0.194135 -0.447473 0.262638 0.282667 -0.105131 0.240274 0.557273 0.693827 -0.643477 -0.716716 0.26555 0.246426 -0.747123 0.223032 -0.0515167
internal_count=4000 3030 970 729 534 360 174 2301 190 2016 285 201 780 585 1848 1559 281 1390 168
cat_boundaries=0 1 2 3 4 5 6 7 8 9 10 11 12 13 14 15 16 17 18 19
cat_threshold=2 2 2 2 128 4 8 4 8 8 8 2 128 8 2 32768 1 128 2
shrinkage=0.05


Tree=6
num_leaves=15
num_cat=14
split_feature=17 4 20 20 19 3 5 15 19 3 3 8 9 21
split_gain=25.3427 10.0634 17.4293 12.3865 4.46908 3.85593 2.47165 1.94392 0.659188 4.0086 1.08636 0.244402 0.0969498 0.00814897
threshold=0 1 2 3 4 5 6 7 8 9 10 11 12 13
decision_type=1 1 1 1 1 1 1 5 1 1 1 1 1 1
left_child=-1 2 -2 5 11 -3 -5 -8 9 -9 -10 -4 -6 -12
right_child=1 3 4 6 12 -7 7 8 10 -11 13 -13 -14 -15
leaf_value=0.046763672415133788 0.022584148232180041 -0.00016356030351621822 -0.034603022572744772 0.029595798213251673 -0.010863724736087517 -0.024836695664286278 0.016720067754192627 -0.033225631229144154 0.0096298772764605682 0.013593452437482624 0.00035023957144955225 -0.048769086775131185 -0.016976048632052199 0.0020601228945792568
leaf_count=152 152 158 329 62 154 417 180 57 390 69 100 52 160 1568
internal_value=0 -0.0528948 -0.318949 0.016585 -0.519305 -0.348499 0.0955996 0.081118 0.0583471 -0.123046 0.0699144 -0.73456 -0.281212 0.0395344
internal_count=4000 3848 847 3001 695 575 2426 2364 2184 126 2058 381 314 1668
cat_boundaries=0 1 2 3 4 5 6 7 8 9 10 11 12 13 14
cat_threshold=2 128 4 4 2 2 32 32768 2 2 2 1 2 128
shrinkage=0.05


Tree=7
num_leaves=16
num_cat=15
split_feature=17 4 20 20 19 3 5 18 18 19 3 3 8 2 9
split_gain=22.3398 9.22214 15.9717 11.2878 4.27271 3.58649 2.17879 1.05037 1.0377 0.7507 3.68983 0.339763 0.245535 0.0981077 0.0886701
threshold=0 1 2 3 4 5 6 7 8 9 10 11 12 13 14
decision_type=1 1 1 1 1 1 1 1 1 1 1 1 1 1 1
left_child=-1 2 -2 5 12 8 9 -7 -3 10 -5 -11 -4 -14 -6
right_child=1 3 4 6 14 7 -8 -9 -10 11 -12 -13 13 -15 -16
leaf_value=0.04333103425042048 0.021153687818653996 0.011496362392067748 -0.04804843078641384 -0.032311934247994049 -0.010399694408376736 -0.02802172812597787 0.027624327287951597 -0.010404857987067251 -0.009731372666873633 0.0078600818513720038 0.01280983018103244 0.0035999716729266489 -0.0307878570685748 -0.039956325793246011 -0.016323841288351484
leaf_count=152 152 67 52 57 154 329 62 88 91 401 69 1837 230 99 160
internal_value=0 -0.0504571 -0.306923 0.0157269 -0.502956 -0.335365 0.0905918 -0.480446 -0.0031087 0.0768928 -0.117456 0.0881154 -0.717133 -0.674473 -0.269927
internal_count=4000 3848 847 3001 695 575 2426 417 158 2364 126 2238 381 329 314
cat_boundaries=0 1 2 3 4 5 6 7 8 9 10 11 12 13 14 15
cat_threshold=2 128 4 4 2 2 1 8 8 2 2 2 2 1 2
shrinkage=0.05


Tree=8
num_leaves=18
num_cat=17
split_feature=22 19 17 3 9 20 3 18 6 6 18 6 9 21 3 15 20
split_gain=38.6086 23.4742 10.708 5.03446 6.52396 6.50794 5.02933 2.9959 1.54874 1.22364 1.60726 1.17445 2.94958 0.362857 0.345881 0.518986 0.155677
threshold=0 1 2 3 4 5 6 7 8 9 10 11 12 13 14 15 16
decision_type=1 1 1 1 1 1 1 1 1 1 1 1 1 1 1 5 1
left_child=6 3 -3 -2 5 -5 7 -1 -6 -8 -11 12 -4 -13 16 -16 -15
right_child=1 2 11 4 8 -7 9 -9 -10 10 -12 13 -14 14 15 -17 -18
leaf_value=0.013650763368657927 -0.03519310483342477 0.042906030597063702 0.015342782824478707 0.013289268411823554 0.013854246666686491 -0.036475829066036733 -0.020655548877875393 -0.020048164458608249 -0.0069835397683909242 -0.026896914162521143 -0.043045837177560262 0.0039678802597102906 -0.013387919845366573 0.007595525627823195 0.017833179242286109 0.009661941677601699 0.016719333473472018
leaf_count=73 195 143 125 54 156 227 198 117 97 326 256 128 123 54 151 1299 278
internal_value=0 0.130911 0.250989 -0.306646 -0.172096 -0.483114 -0.503307 -0.114182 0.117039 -0.610702 -0.682788 0.200131 0.0252156 0.221303 0.230968 0.211683 0.308835
internal_count=4000 3030 2301 729 534 281 970 190 253 780 582 2158 248 1910 1782 1450 332
cat_boundaries=0 1 2 3 4 5 6 7 8 9 10 11 12 13 14 15 16 17
cat_threshold=2 2 2 2 2 4 2 8 8 8 8 8 2 128 2 32768 4
shrinkage=0.05


Tree=9
num_leaves=18
num_cat=17
split_feature=22 19 17 3 3 4 6 18 8 4 18 6 9 9 3 15 4
split_gain=35.3767 21.1848 9.35313 4.75034 4.74175 6.32724 3.73574 2.73119 1.9097 1.30157 1.51303 1.04617 2.65843 0.573298 0.277718 0.764871 0.20319
threshold=0 1 2 3 4 5 6 7 8 9 10 11 12 13 14 15 16
decision_type=1 1 1 1 1 1 1 1 1 1 1 1 1 1 1 5 1
left_child=3 4 -3 7 -2 8 -7 -1 13 -5 -11 12 -4 -6 -13 -16 -14
right_child=1 2 11 9 5 6 -8 -9 -10 10 -12 14 16 -15 15 -17 -18
leaf_value=0.012863134592504079 -0.03431130705613563 0.039899205092654336 0.014434455243298925 -0.019390277391711432 -0.019120070838659228 0.030442858946906001 -0.0066674187786999409 -0.019322440426340112 -0.046882246139682449 -0.02636236196446743 -0.042231557440946664 0.013897148744434346 -0.0062636746135651877 -0.0044662979041562249 0.017751300606298089 0.0085474516482176473 -0.018537602097350604
leaf_count=73 195 143 125 195 234 77 97 117 52 329 256 343 60 74 169 1398 63
internal_value=0 0.123891 0.236722 -0.487299 -0.294966 -0.164772 0.217617 -0.10889 -0.394949 -0.59354 -0.668023 0.188988 0.0237338 -0.310236 0.208851 0.1924 -0.256764
internal_count=4000 3030 2301 970 729 534 174 190 360 780 585 2158 248 308 1910 1567 123
cat_boundaries=0 1 2 3 4 5 6 7 8 9 10 11 12 13 14 15 16 17
cat_threshold=2 2 2 2 2 128 8 8 1 128 8 8 2 2 2 32768 128
shrinkage=0.05



feature importances:
banner_pos=26
C18=24
C19=19
app_category=18
site_id=17
C17=16
site_category=12
C14=8
C16=8
C21=8
C20=5
app_domain=4
C1=2
site_domain=2

pandas_categorical:null
